svm_type c_svc
kernel_type rbf
gamma 0.05555555555555555
nr_class 2
total_sv 30
rho 0.5217204560272534
label 1 -1
nr_sv 7 23
SV
1.0 1:-0.1998077 2:-0.8560874 3:0.8818901 4:-0.35211876 5:-0.8421124 6:1.123135 7:1.0756466 8:-0.14739257 9:-0.09087646 10:-0.87779284 11:0.87828726 12:-0.2631711 13:-0.3875013 14:-0.4934489 15:0.70833546 16:-0.21439622 17:-0.9611946 18:0.67077255 
1.0 1:0.3249991 2:-1.1907265 3:0.8647261 4:-0.35016137 5:-0.8295133 6:1.1059029 7:1.0756466 8:-0.14739257 9:-0.089282654 10:-0.87614125 11:0.8761869 12:-0.25785628 13:0.6876707 14:-0.4934489 15:0.7055731 16:-0.21238934 17:-0.9520257 18:0.66962665 
1.0 1:0.3249991 2:-1.1907265 3:0.8485676 4:-0.34868667 5:-0.8199722 6:1.085602 7:1.0756466 8:-0.14739257 9:-0.088049196 10:-0.8747614 11:0.87268305 12:-0.25410327 13:0.6876707 14:-0.4934489 15:0.70404536 16:-0.2110492 17:-0.9422982 18:0.6665353 
0.6836834086751573 1:0.3249991 2:-1.1907265 3:0.83672315 4:-0.34748834 5:-0.80762476 6:1.0474484 7:1.0756466 8:-0.14739257 9:-0.08636941 10:-0.87275445 11:0.86721677 12:-0.24968283 13:0.6876707 14:-0.4934489 15:0.70106393 16:-0.20979099 17:-0.9438853 18:0.66537553 
0.7838740339148607 1:1.1191349 2:-1.1907265 3:-1.0811003 4:0.51843286 5:1.8013338 6:-2.0078237 7:1.0756466 8:-0.14739257 9:0.7317321 10:-0.07147044 11:0.23752938 12:1.0075195 13:0.9083315 14:-0.4934489 15:0.35332826 16:0.7660889 17:0.101043135 18:0.5719009 
0.05862113097361564 1:1.1191349 2:-1.1907265 3:-2.2844698 4:2.189487 5:0.672976 6:-0.5492564 7:1.0756466 8:-0.14739257 9:1.9936697 10:0.43599892 11:-1.1689429 12:1.5800227 13:0.9083315 14:-0.4934489 15:1.3846601 16:1.7495489 17:-0.8306384 18:1.1355109 
1.0 1:1.1191349 2:-1.1907265 3:-2.2577069 4:2.2099876 5:0.650661 6:-0.52111393 7:1.0756466 8:-0.14739257 9:2.0002294 10:0.42893577 11:-1.164023 12:1.5772073 13:0.9083315 14:-0.4934489 15:1.3864418 16:1.7436185 17:-0.83107865 18:1.1358407 
-0.39830019874205314 1:-2.8058863 2:2.351974 3:6.70682 4:-2.4279118 5:-1.792928 6:4.8131886 7:-4.305469 8:7.7513933 9:-1.5629178 10:-4.395764 11:-4.4523506 12:-0.1617762 13:-5.777427 14:7.707123 15:3.217199 16:-4.249417 17:-2.927679 18:0.42448583 
-0.26668038421565915 1:-2.7268832 2:2.2323623 3:4.9494066 4:-2.3195322 5:-1.7442539 6:0.53917193 7:-4.2712417 8:7.7513933 9:-1.3757105 10:-4.687862 11:-4.4641047 12:0.44664317 13:-5.7440205 14:7.624378 15:1.360303 16:-3.9834251 17:-3.2780313 18:1.5680382 
-0.09323005821283789 1:-2.6714783 2:2.2323623 3:1.7139232 4:-2.3402715 5:-1.7393116 6:1.8632569 7:-4.177273 8:7.7513933 9:-1.2595621 10:-4.7169824 11:-4.4256687 12:0.7101982 13:-5.741383 14:7.132322 15:1.0561457 16:-3.8397536 17:-3.1234841 18:1.1553545 
-0.07906298753115082 1:-2.6714783 2:2.1492732 3:1.5029228 4:-2.32394 5:-1.7250528 6:1.3934872 7:-4.1380672 8:7.3163548 9:-1.2314202 10:-4.670757 11:-4.166171 12:0.83559644 13:-5.6332507 14:7.1014304 15:0.9085935 16:-3.7689114 17:-3.224439 18:1.3360385 
-0.24121151884271813 1:-2.4216437 2:1.8246777 3:0.85411745 4:-1.9253545 5:-1.6663789 6:1.3445904 7:-3.747879 8:7.1234245 9:-1.0680448 10:-3.8167639 11:-4.435665 12:1.9768512 13:-4.935224 14:5.6329837 15:-0.8694053 16:-2.5676875 17:-2.407008 18:-0.10352211 
-0.14030912121056197 1:-2.0450962 2:1.658043 3:0.9828694 4:-1.8366487 5:-1.5620413 6:1.8456886 7:-3.6931157 8:3.9974525 9:-1.0841767 10:-3.5223312 11:-3.6330454 12:1.4590296 13:-4.680277 14:4.5881915 15:-0.8375049 16:-2.485821 17:-2.3269007 18:-0.117747135 
-0.03615999090799556 1:-2.0450962 2:1.658043 3:0.9897214 4:-1.6707251 5:-1.4247503 6:2.1267805 7:-3.364536 8:3.9974525 9:-1.0916141 10:-2.7848773 11:-2.7942226 12:1.1767027 13:-3.313235 14:4.1733637 15:-0.9415922 16:-2.2074046 17:-1.6595966 18:-0.35618415 
-0.027084034321567127 1:-2.0450962 2:1.658043 3:0.6930478 4:-1.6004072 5:-1.4351888 6:1.8105819 7:-3.364536 8:3.9974525 9:-1.0827149 10:-2.3791757 11:-3.1735456 12:1.4279282 13:-3.313235 14:4.1733637 15:-0.98826766 16:-2.0698555 17:-1.6496392 18:-0.4889565 
-0.04186555578006624 1:-2.0450962 2:1.658043 3:0.8145968 4:-1.5727626 5:-1.4470265 6:2.0206223 7:-3.364536 8:3.9974525 9:-1.1012981 10:-2.2093093 11:-3.3163025 12:1.3322394 13:-3.313235 14:4.1733637 15:-0.75618684 16:-1.9340992 17:-1.7063918 18:-0.1912496 
-0.08911992122538279 1:-2.0450962 2:1.658043 3:0.7765516 4:-1.5275385 5:-1.4559944 6:1.9547151 7:-2.9482105 8:1.755428 9:-1.0954622 10:-1.8481898 11:-2.289316 12:0.91553533 13:-3.313235 14:4.1733637 15:-0.8468782 16:-1.860447 17:-1.6844819 18:-0.2912713 
-0.0988952226805067 1:-2.0450962 2:1.5448227 3:0.6528474 4:-1.4308836 5:-1.4319334 6:1.6613556 7:-2.9482105 8:1.755428 9:-1.0897647 10:-1.585437 11:-2.653573 12:0.93108326 13:-1.981358 14:4.1733637 15:-0.9294552 16:-1.7728822 17:-1.4468443 18:-0.15051983 
-0.06124284138997708 1:-1.8214247 2:1.3736225 3:0.648729 4:-1.3225524 5:-1.3736364 6:1.9782152 7:-1.3389167 8:1.5978054 9:-1.0486659 10:-0.9119455 11:-1.9562068 12:0.44507226 13:-1.981358 14:4.1733637 15:-1.2474008 16:-1.541741 17:-1.5564961 18:-0.35399804 
-0.037469347188299515 1:-1.8214247 2:1.2809463 3:0.5252036 4:-1.2818018 5:-1.3287935 6:1.3825005 7:-1.3389167 8:0.3885244 9:-1.0455205 10:-0.26374948 11:-0.93350226 12:-0.35677722 13:-1.981358 14:4.1733637 15:-1.429988 16:-1.4026686 17:-1.5838747 18:-0.52049226 
-0.025173210466664778 1:-1.0129248 2:0.8339999 3:0.23767741 4:0.02383178 5:-1.0558236 6:0.8508028 7:-0.5921445 8:-0.14739257 9:-1.0171658 10:3.540179 11:-2.1752925 12:-0.46687376 13:-0.42618287 14:1.0875304 15:-2.0913165 16:0.44452122 17:-0.035105217 18:-0.9958392 
-0.3757014189996828 1:-1.0129248 2:0.8339999 3:0.21841498 4:0.08525955 5:-1.048901 6:0.70927894 7:-0.5921445 8:-0.14739257 9:-1.0153109 10:3.672949 11:-2.2250135 12:-0.4493577 13:-0.42618287 14:0.17954297 15:-2.1501787 16:0.63531965 17:0.7831491 18:-1.4526225 
-0.015222057810618885 1:-1.0129248 2:0.80341214 3:0.3192057 4:-0.7721191 5:-0.607902 6:0.45795804 7:-0.5921445 8:-0.14739257 9:-1.1026418 10:1.1326195 11:-0.40333766 12:-0.9333623 13:-0.42618287 14:0.17954297 15:-1.6199583 16:-0.8506125 17:1.7295678 18:-1.6809298 
-0.06794740341338523 1:-1.0129248 2:0.80341214 3:0.5311057 4:-0.9907951 5:-0.42899963 6:0.27160025 7:-0.5921445 8:-0.14739257 9:-1.1257163 10:0.54149806 11:0.16089316 12:-1.0470476 13:-0.42618287 14:0.17954297 15:-1.4159075 16:-1.0085282 17:1.6409806 18:-1.5765421 
-0.20225009626397275 1:-1.0129248 2:0.80341214 3:0.41026843 4:-1.1520636 5:-0.27575278 6:-0.72434694 7:-0.5921445 8:-0.14739257 9:-0.992363 10:-0.52357715 11:1.4209805 12:-1.2611096 13:-0.42618287 14:-0.019044796 15:-0.61716896 16:-0.9243561 17:0.640113 18:-0.7922767 
-1.0 1:-0.1998077 2:0.11541606 3:0.8049239 4:-0.26105785 5:-0.89762586 6:1.1777382 7:-0.5921445 8:-0.14739257 9:-0.024805166 10:-0.8287202 11:0.7449945 12:-0.24491818 13:-0.3875013 14:-0.019044796 15:0.7628654 16:-0.07828803 17:-1.0728843 18:0.7068035 
-0.008451019231902402 1:-0.1998077 2:0.11541606 3:0.8054543 4:-0.26143888 5:-0.89745766 6:1.1782223 7:-0.5921445 8:-0.14739257 9:-0.0251788 10:-0.8294679 11:0.74561733 12:-0.24483535 13:-0.3875013 14:-0.019044796 15:0.7619371 16:-0.07855756 17:-1.0734648 18:0.7075443 
-1.0 1:-0.1998077 2:0.11541606 3:0.79561687 4:-0.27840346 5:-0.8890895 6:1.1848872 7:-0.5921445 8:-0.14739257 9:-0.042397965 10:-0.8577638 11:0.77699596 12:-0.2395776 13:-0.3875013 14:-0.019044796 15:0.7598865 16:-0.10854991 17:-1.040342 18:0.68595433 
-1.0 1:-0.1998077 2:0.11541606 3:0.8115322 4:-0.29009998 5:-0.8833862 6:1.1814818 7:-0.5921445 8:-0.14739257 9:-0.052177303 10:-0.8729693 11:0.79027206 12:-0.23368435 13:-0.3875013 14:-0.019044796 15:0.74189013 16:-0.12811586 17:-1.0223051 18:0.681785 
-0.2208021851286307 1:-0.1998077 2:0.11541606 3:0.8077895 4:-0.29260817 5:-0.88212657 6:1.1827747 7:-0.5921445 8:-0.14739257 9:-0.053716388 10:-0.8737425 11:0.79011714 12:-0.2343694 13:-0.3875013 14:-0.019044796 15:0.74037176 16:-0.13204509 17:-1.0203972 18:0.68211293 
