svm_type c_svc
kernel_type rbf
gamma 0.05555555555555555
nr_class 2
total_sv 25
rho 0.429362801056172
label 1 -1
nr_sv 7 18
SV
1.0 1:-0.7112012 2:0.59573066 3:0.931587 4:-0.38007644 5:-0.8029898 6:1.0950778 7:0.4973969 8:0.38983464 9:-0.07418999 10:-0.87285346 11:0.6535147 12:-0.32872024 13:-0.6323488 14:-0.39787686 15:0.7214539 16:-0.22107118 17:-1.4628311 18:0.81335974 
1.0 1:-0.4619684 2:0.081392325 3:0.9168023 4:-0.3783329 5:-0.7957847 6:1.0775658 7:0.4973969 8:0.38983464 9:-0.07264948 10:-0.8713415 11:0.6519318 12:-0.32448423 13:-0.6323488 14:-1.1648153 15:0.717798 16:-0.21851134 17:-1.3871391 18:0.7997354 
1.0 1:-0.4619684 2:-0.34456488 3:0.9029739 4:-0.37691304 5:-0.7858184 6:1.0522783 7:0.4973969 8:0.38983464 9:-0.07145625 10:-0.86992943 11:0.6495435 12:-0.32130024 13:-0.6323488 14:-1.1648153 15:0.7154784 16:-0.21659836 17:-1.3563187 18:0.79009366 
0.8681548661092272 1:-0.4619684 2:-0.34456488 3:0.8940988 4:-0.37628266 5:-0.781051 6:1.0298686 7:0.4973969 8:0.38983464 9:-0.06984688 10:-0.8682458 11:0.64443517 12:-0.31716794 13:-0.6323488 14:-1.1648153 15:0.7115955 16:-0.2139143 17:-1.359143 18:0.7881296 
0.07661630702014512 1:1.2370874 2:-1.2303698 3:-0.31524956 4:-0.050023716 5:0.89798516 6:-1.8821459 7:1.222451 8:-0.6359947 9:0.32102162 10:-0.53457594 11:0.65778404 12:0.37578407 13:1.2238084 14:-1.2096757 15:0.8875908 16:0.37214378 17:0.2261964 18:1.1279086 
0.8705103576520725 1:1.2399358 2:-1.2303698 3:-1.08534 4:0.51428604 5:1.9003215 6:-1.9851034 7:1.2370316 8:-1.2520574 9:0.7203365 10:-0.124151416 11:0.9472786 12:0.97376126 13:1.2449577 14:-1.2122637 15:0.38057715 16:0.75747275 17:1.6446921 18:0.42382726 
0.9607909443223543 1:1.2399358 2:-1.2303698 3:-2.2059286 4:2.202403 5:0.6581971 6:-0.6334235 7:1.2370316 8:-1.2520574 9:1.9888278 10:0.2865681 11:-0.63342184 12:1.5729337 13:1.2449577 14:-1.2122637 15:1.3977622 16:1.7560022 17:0.05762457 18:1.0777844 
-0.2568960776612354 1:-1.5714105 2:1.4164127 3:5.3315263 4:-2.4890425 5:-1.1844177 6:3.5078838 7:-1.5531673 8:3.8205695 9:-1.7947772 10:-4.3094716 11:-4.8126845 12:0.09252233 13:-3.697745 14:2.1341414 15:1.4989789 16:-4.126399 17:-3.1709168 18:0.50354993 
-0.2469566878157036 1:-1.5536082 2:1.3878384 3:2.4595137 4:-2.401503 5:-1.1468407 6:1.7255064 7:-1.5531673 8:3.8205695 9:-1.5311338 10:-4.3716917 11:-4.980495 12:0.53362375 13:-3.697745 14:2.1341414 15:2.6238759 16:-4.144404 17:-3.2944374 18:0.4691006 
-0.47702707419259915 1:-1.5265486 2:1.3805286 3:8.786525 4:-2.2079887 5:-1.1768112 6:1.4318893 7:-1.543226 8:3.8205695 9:-1.5812716 10:-4.490634 11:-5.092758 12:0.96010303 13:-3.697745 14:2.109986 15:-0.8151554 16:-3.702665 17:-3.4369633 18:1.2160788 
-0.08266886953992722 1:-1.5265486 2:1.345309 3:1.029688 4:-2.3676014 5:-1.1649785 6:1.5054613 7:-1.4948449 8:3.6820967 9:-1.2852767 10:-4.584821 11:-4.4994802 12:1.0893537 13:-3.628077 14:2.0504599 15:0.7380998 16:-3.6604726 17:-3.4669814 18:1.3012646 
-0.017511382662926577 1:-1.5265486 2:1.345309 3:1.2499179 4:-2.3731306 5:-1.1688333 6:1.4189128 7:-1.4948449 8:3.6820967 9:-1.0916042 10:-4.528203 11:-4.5534945 12:1.6933675 13:-3.628077 14:2.0504599 15:-0.16189912 16:-3.394847 17:-3.4682508 18:1.134232 
-0.04301211364293199 1:-1.5265486 2:1.126682 3:1.2206175 4:-2.3394792 5:-1.1673056 6:1.0327797 7:-1.2840887 8:3.6820967 9:-1.1494433 10:-4.4907427 11:-4.6180105 12:1.5944252 13:-2.5992286 14:1.9667782 15:-0.29504484 16:-3.4504359 17:-3.3256261 18:1.0485134 
-0.21601394180911276 1:-1.4218708 2:1.126682 3:0.58494383 4:-1.9416668 5:-1.1386896 6:1.0869396 7:-1.2840887 8:3.6170993 9:-1.1053479 10:-3.7418175 11:-4.7720914 12:2.1673734 13:-2.5992286 14:1.7511036 15:-0.8024471 16:-2.5398273 17:-2.6844115 18:-0.2357496 
-0.1963299412500132 1:-1.294406 2:1.126682 3:0.6184509 4:-1.6036434 5:-1.047203 6:1.5637734 7:-1.2840887 8:2.7339816 9:-1.1035463 10:-2.3689551 11:-3.6338916 12:1.6782739 13:-2.5992286 14:1.4871181 15:-1.0119814 16:-2.0310857 17:-2.0163076 18:-0.7454213 
-0.46336149314348357 1:-0.8265604 2:0.83628684 3:-0.019965336 4:0.15182586 5:-0.88648427 6:0.6814856 7:-0.790999 8:1.2390404 9:-1.0560187 10:3.714315 11:-2.49828 12:-0.3402559 13:-0.6323488 14:0.7814312 15:-2.0928428 16:0.5789435 17:0.026125645 18:-1.5156933 
-0.09519739631990129 1:-0.8265604 2:0.81236416 3:0.01324851 4:-0.6850885 5:-0.72443664 6:0.57174766 7:-0.790999 8:0.50569963 9:-1.1118156 10:1.3457735 11:-0.85440356 12:-0.83740157 13:-0.6323488 14:0.7814312 15:-1.6688977 16:-0.8056343 17:0.83670473 18:-1.7050548 
-0.27003774997591207 1:-0.8265604 2:0.81236416 3:0.8208479 4:-1.3995122 5:-0.45744187 6:0.13047521 7:-0.790999 8:0.50569963 9:-1.0622307 10:-0.4771019 11:1.2148384 12:-1.3463128 13:-0.6323488 14:0.7417471 15:-0.73239195 16:-0.92028993 17:-0.06454181 18:-0.7440972 
-0.13943344569921634 1:-0.8265604 2:0.81236416 3:0.3378118 4:-1.1589323 5:-0.57412577 6:-0.1329488 7:-0.790999 8:0.50569963 9:-0.9747708 10:-0.4753324 11:1.1192263 12:-1.2788495 13:-0.6323488 14:0.7417471 15:-0.61604357 16:-0.93706334 17:-0.09274904 18:-0.7529437 
-0.6582513683510042 1:-0.7112012 2:0.59573066 3:0.87868726 4:-0.28431815 5:-0.8236253 6:1.1144826 7:-0.790999 8:0.38983464 9:-0.0123423 10:-0.8211166 11:0.50697255 12:-0.3186967 13:-0.6323488 14:0.7417471 15:0.7985126 16:-0.100452706 17:-1.569513 18:0.8540811 
-0.5354167681466486 1:-0.7112012 2:0.59573066 3:0.8364366 4:-0.30198154 5:-0.81980675 6:1.1206114 7:-0.790999 8:0.38983464 9:-0.02957476 10:-0.85383236 11:0.54193735 12:-0.31015426 13:-0.6323488 14:0.7417471 15:0.77899945 16:-0.12808922 17:-1.5430833 18:0.82753414 
-0.6012730539831608 1:-0.7112012 2:0.59573066 3:0.8637155 4:-0.32077736 5:-0.8160529 6:1.116092 7:-0.790999 8:0.38983464 9:-0.041003037 10:-0.8692635 11:0.57221735 12:-0.3120938 13:-0.6323488 14:0.7417471 15:0.75767183 16:-0.1489851 17:-1.5317799 18:0.8279993 
-0.11723678897548573 1:-0.7112012 2:0.59573066 3:0.89801955 4:-0.322106 5:-0.8159032 6:1.1138324 7:-0.790999 8:0.38983464 9:-0.042405847 10:-0.8673224 11:0.58170354 12:-0.31584692 13:-0.6323488 14:0.7417471 15:0.75514585 16:-0.15272292 17:-1.5293254 18:0.82777894 
-0.3895874869448223 1:-0.7112012 2:0.59573066 3:0.90673435 4:-0.3222539 5:-0.81595486 6:1.1125518 7:-0.790999 8:0.38983464 9:-0.042791735 10:-0.8674671 11:0.5815813 12:-0.31575623 13:-0.6323488 14:0.7417471 15:0.7554213 16:-0.15365738 17:-1.5288874 18:0.82770663 
-0.9698608349897143 1:-0.7112012 2:0.59573066 3:0.923732 4:-0.32374236 5:-0.8156833 6:1.1092888 7:-0.790999 8:0.38983464 9:-0.043900967 10:-0.8678295 11:0.58244693 12:-0.31699488 13:-0.6323488 14:0.7417471 15:0.75733525 16:-0.15638372 17:-1.5277436 18:0.8268432 
